-0.965984,0.537916,-0.548393,0.993768,-0.913902,1.011684,-1.482578,-0.614461,2.069431,0.196841,0.701770,-0.768250,-0.018483,0.169479,0.064553,-15.308599,3.943013,0.844496,1.660837,0.334163,-0.305093,1.586095,1.574644,0.662932,-0.113106,0.266181,-0.176263,-0.289236,0.198650,-0.668963,-0.976859,1.035979,0.726476,-0.229953,-0.798174,2.562852,2.125140,-0.207244,1.617538,0.459714,1.221224,0.133858,-0.489504,-1.187662,1.335313,0.848795,5.468012,-0.202249,0.143603,9.008801,2.244126,3.117594,1.462589,-0.257256,0.394173,1.275776,1.980324,1.666796,-0.532692,-1.767290,0.686815,-0.216210,0.435742,1.599582,0.606590,-0.150046,-4.074387,-0.590662,1.111987,-0.281113,1.737487,0.879876,0.591302,-0.394658,-0.903696,-0.108011,0.217066,-1.632401,-0.618517,0.341946,0.146962,-0.849980,3.403557,0.885219,-0.004543,4.013147,1.001996,-0.414526,-0.748199,0.805166,-0.032020,0.149505,-2.783243,-0.743937,4.157085,-0.280016,-0.649357,0.300628,-0.865335,1.775769,1.360685,5.686204,0.352558,4.193536,-0.470718,0.862823,0.650230,0.387925,-0.014144,0.260422,0.186408,-0.581900,-0.100667,-1.898299,0.882675,-0.156379,0.658500,0.668846,2.916630,0.224557,0.028516,-1.908891,-0.536344,4.325064,-1.788000,0.259661,0.997809,3.267883,1.036923,-0.253481,3.686297,0.131798,0.519998,-0.810969,-0.998661,0.022662,3.841004,1.147615,-0.545458,-4.033276,-0.205381,5.975194,-1.258693,0.086589,0.155957,1.192645,-0.980500,-0.606206,1.356485,-0.759264,-0.215660,-0.271171,0.392801,-0.824986,-0.221282,0.659426,0.401894,-1.343158,0.449814,1.958278,-0.902539,-0.047143,-1.045442,0.715764,-0.744640,-0.706411,-1.165925,-1.072367,-0.658530,-0.272759,-0.236575,0.625084,-0.436488,0.415082,0.961756,-0.698082,-0.908026,-0.258256,0.059528,-0.246470,0.667893,-1.482158,-0.155493,0.606166,-0.376945,1.886370,-0.956719,-1.010651,1.666275,1.113763,0.645511,-0.727144,0.983842,-0.418834,-0.572025,-2.369215,-0.751268,1.039468,0.533360,-0.266461,-1.117581,0.631334,-0.163970,0.833481,0.413920,-0.548738,0.892378,-0.564904,3.126808,-1.310805,-0.313035,-0.802907,0.859879,0.553774,-0.219254,-1.783128,-0.163835,6.812838,-0.553370,-0.727792,1.078031,0.165190,0.980526,0.896118,1.048924,-1.782169,-0.952870,-0.210047,6.768176,-0.164139,-4.823702,-1.183443,-0.529463,1.004520,-0.761799,0.580095,3.054253,-3.987484,-0.867203,-4.330798,-3.077760,0.367918,0.291264,0.156652,-2.842887,0.934215,-0.508825,-0.624072,-3.465787,0.508677,-0.884340,0.616971,-0.031347,-0.972836,0.992786,-0.554581,0.322273,0.564182,-3.360439,-3.134172,0.410222,-0.300588,2.062350,-0.229315,-0.485838,-0.299740,1.245757,0.047566,-0.287556,0.688897,0.021939,-0.830329,0.743500,-3.751840,-0.678449,-2.441894,-0.736394,0.300294,3.148388,-0.259234,-0.197066,-0.362155,-0.565890,1.242327,1.594970,-0.509888,3.566105,-0.385521,1.384053,-0.834372,-0.077198,-0.334383,-0.096189,1.273311,0.054411,-0.076475,0.893726,-0.300016,-0.793793,0.044376,-1.457594,-0.199596,0.503293,6.800555,-0.323375,-0.679023,-0.082527,3.403672,0.305813,-1.952992,-3.090067,2.746450,2.425420,0.515404,-1.101650,-0.284439,-3.839507,-0.385499,0.074138,-0.599360,-0.807908,-0.948171,-0.197143,-2.385521,0.050420,-0.943638,0.310641,0.654438,0.651581,-2.102949,-0.613452,0.455551,10.044773,0.623872,0.738450,0.992720,-0.473518,-0.134236,-1.155849,0.498439,-0.491390,0.936307,0.493135,0.381735,-1.160290,-0.393861,8.043247,-0.762090,4.363305,-0.385649,-0.889455,0.247168,2.938555,-0.638330,0.391331,-0.879304,0.665707,0.055427,0.074666,0.573371,-1.855897,-4.256313,0.621777,-0.438393,-0.808834,-0.312215,-1.077671,-2.984271,3.415974,0.653323,5.897950,0.840970,0.280967,-1.381269,-0.941734,-0.416532,-1.929602,0.496661,0.621088,-3.975598,-0.691435,-0.412503,-0.403493,0.807788,9.093177,0.075288,-0.479222,-0.885021,0.212769,0.413711,0.880650,0.666609,0.503920,-0.830934,-0.095178,0.443431,0.066519,0.874651,2.620291,-0.081476,1.464335,-0.008814,0.040998,8.430309,0.758962,-1.030714,2.049799,-0.322320,-0.775268,-0.454609,-0.514901,1.965272,8.386416,-0.953995,0.014669,0.783439,-1.322060,0.290116,-0.737909,-0.818398,-0.046664,-1.119577,0.785533,0.193053,0.555116,-0.733485,0.893835,-0.927809,1.245511,-0.076721,6.074184,-0.083304,-0.757320,-1.498602,-0.647429,2.787741,-0.424194,1.065704,0.255143,-0.127449,0.463710,-0.941039,-0.182220,0.346201,-0.920995,-0.965180,6.980901,6.007734,0.750622,-0.749284,3.634226,0.817674,1.037344,8.864543,-0.147116,2.889672,-0.560250,-0.783620,4.286153,0.384893,0.700627,-0.260331,-0.750234,-0.744040,-0.107881,-0.510409,-0.699115,3.197960,0.743922,-0.492415,0.660405,-4.687260,-0.165744,1.710770,0.471429,-1.937923,-1.712018,0.064562,-0.827712,-0.392005,-3.770570,0.173788,-0.432854,-0.831522,1.445783,2.866892,-0.870459,-0.668957,5.089311,4.905274,-0.051202,0.345093,1.193951,0.747292,-0.700440,-0.082934,-0.406452,-2.349393,3.803446,0.624444,-0.582303,-0.428041,-0.750086,-0.471738,0.620437,1.673655,-4.364719,1.921591,0.319251,0.054153,-0.061005,0.487218
-0.837028,0.237056,-0.233136,0.733948,0.542375,-0.547252,0.328702,-0.019559,0.580944,-0.146355,0.098388,0.604879,-0.899948,0.138447,-0.645269,0.895047,0.520687,-0.565678,0.612208,-0.825538,-0.012812,0.504979,0.980367,-0.395823,0.062023,0.444460,-0.221990,0.607667,0.089156,-0.259715,-0.326756,0.454145,0.511303,0.145174,-0.918024,1.033746,-0.239212,-0.443307,0.999504,-1.005907,1.027147,-0.597381,0.021812,-0.274930,-0.208222,0.807007,0.637028,0.092431,0.797299,-0.279329,0.097768,-0.489973,-0.793432,0.604683,-1.091982,-0.721864,-0.672571,0.759857,0.911648,-0.481835,0.293135,-0.280670,-0.849967,-0.345501,-0.815394,0.075593,0.138081,0.977716,0.271995,0.664868,-1.203952,0.632299,0.181096,0.524885,0.572454,-0.328794,-0.560107,-0.279300,-0.123743,0.715326,-0.459364,-0.489468,0.115837,-1.202231,-0.576462,0.759199,-0.083281,-0.977421,-0.808753,0.538742,0.370610,-0.740878,0.901352,-0.121348,-0.540220,0.331849,-0.840854,0.510557,-0.702250,0.704008,0.822038,0.160267,-0.859113,-0.459306,-0.845286,0.392414,0.178856,0.281276,-0.208038,0.906046,0.585522,0.646582,-0.447580,0.350083,0.112628,-0.336256,-0.697803,1.083147,-1.019520,-0.118672,0.407099,0.634936,-0.901324,0.801419,-0.868727,-0.520941,-0.299816,-0.092730,-0.110002,-0.081468,-0.718280,0.437497,0.889015,-0.382507,-0.941832,-0.080924,0.596879,0.050709,1.045546,0.506114,0.400865,0.824715,0.060323,0.020121,0.100346,0.184741,0.075509,-0.222860,-0.397568,-0.782098,0.731615,-0.165905,0.724360,-0.509529,-0.843707,-0.885791,0.102633,-0.799027,1.088624,1.193508,0.512276,0.949019,-0.121731,0.037499,0.575206,0.261707,0.396985,-0.899893,-0.475215,0.759801,-0.891477,0.234149,-0.485763,1.006162,0.134286,-0.757082,0.783445,-0.455227,0.808899,0.844519,0.214403,-0.649408,0.152958,0.466293,0.216111,0.136646,0.289609,0.666379,-0.406844,-0.613103,0.390813,-0.868562,-0.049960,-0.975758,-0.438799,0.314430,-0.308329,-0.227459,0.811269,0.058714,-0.471843,-0.666558,0.501070,-0.094059,-0.764781,0.039934,0.194232,0.674683,-0.832224,0.625290,0.552796,0.012917,0.080681,0.859431,-0.789326,-0.085720,0.010128,0.424392,0.268327,0.797306,0.904959,0.151350,-0.200991,0.626288,0.065160,-0.030828,0.185966,-0.294858,0.641833,-0.788973,0.752379,-0.228672,0.003040,-0.100176,0.884179,-0.312817,0.711996,-0.465071,-0.764779,-0.925580,-0.569966,0.702919,1.072247,0.244744,-0.096239,-0.446923,-0.380921,0.756206,-0.287543,0.923483,-0.825123,-0.858429,-0.388942,0.655301,0.589145,0.922533
0.376202,-0.684052,-0.814327,0.617996,0.745751,-0.523111,-0.529750,-0.081943,-0.209368,0.758141,-0.874016,-0.126018,-0.516850,-0.361318,-0.448739,-0.399261,0.837856,1.050901,-0.896586,0.627994,0.794109,0.558940,-0.258904,0.080249,0.042819,-0.277270,0.556801,0.234905,0.611515,-0.127515,0.800014,-0.396130,0.150883,0.051569,0.022479,0.114264,0.870876,-0.151087,-0.117663,0.954711,0.064933,0.523527,0.494738,0.686754,-0.612782,0.920247,-0.438441,-0.582333,-0.909572,0.959929,-0.466481,0.478240,0.302708,0.714676,-0.341098,0.121910,0.265024,0.751372,0.077365,0.876412,0.289232,1.006275,-0.173077,0.175699,-0.911968,0.740427,0.432152,0.149016,-0.916150,-0.734403,-0.386315,-0.241441,0.090819,0.089739,0.520762,-0.301901,-0.597283,-0.205261,0.732600,0.613710,0.925824,-0.895670,0.285417,-0.461869,0.345226,0.606491,0.609930,0.773797,0.236089,-0.339549,0.148865,-0.753277,-0.842516,0.108007,-0.226903,0.877024,-0.848032,-0.075755,-0.827724,-0.784702,0.504418,-0.248362,-0.273499,-0.574236,-0.657470,-0.955480,0.663591,0.810061,-0.045413,0.042450,-0.611112,0.656093,0.662306,0.231807,-0.686024,-0.382303,0.396306,-0.401400,0.090296,0.303208,0.928080,0.204575,0.161695,0.254786,-0.375823,-0.929557,-0.880034,0.742091,-0.287678,0.799630,0.067709,0.947211,0.899616,-0.824060,0.020026,-0.653207,0.077697,-0.346080,-0.550000,0.922213,0.415675,-0.040095,0.003531,0.138082,0.241658,-0.936484,0.602177,0.295390,1.051102,0.583138,0.875401,-0.864421,0.471409,-0.596251,-0.129295,0.124175,0.460376,0.084782,-0.511041,-0.765051,0.639938,-0.545544,0.688631,-0.761466,-0.434531,-0.447402,0.189639,-0.207693,0.234108,0.984261,-0.382108,0.485554,1.017908,-0.835788,-0.580200,0.596130,0.404733,0.908324,0.674740,0.926978,0.082229,1.027459,0.566192,-1.127699,0.007754,0.278587,-0.764049,-0.431626,0.197151,-0.510906,-0.215450,-0.194747,-0.298781,-0.116478,-0.795348,-0.229444,-0.959230,0.065166,-0.826146,0.315988,0.128608,0.150067,-0.076955,0.899319,0.012870,0.857530,0.326985,-0.965888,-0.321365,0.670908,-0.301438,-0.791766,0.418666,0.149899,-0.389354,0.247737,0.221015,0.898643,-0.393965,0.139186,-0.369897,-0.026072,-0.359393,-0.264309,-0.026090,0.843786,-0.368340,0.089980,-0.910000,0.448839,0.343826,-0.488891,-0.900490,0.933802,0.895289,-0.612454,0.217096,-0.602556,0.458220,0.800816,-0.759865,-0.117903,-0.786279,1.032870,0.853480,0.395160,0.871350,0.378932,0.664322,-0.635098,0.621102,-0.534987,0.280002,0.297406,-0.950931,-0.608471
